<?xml version="1.0"?>
<opencv_storage>
<cascade>
  <stageType>BOOST</stageType>
  <featureType>HAAR</featureType>
  <height>30</height>
  <width>20</width>
  <stageParams>
    <boostType>GAB</boostType>
    <minHitRate>9.9500000476837158e-01</minHitRate>
    <maxFalseAlarm>5.0000000000000000e-01</maxFalseAlarm>
    <weightTrimRate>9.4999998807907104e-01</weightTrimRate>
    <maxDepth>1</maxDepth>
    <maxWeakCount>100</maxWeakCount></stageParams>
  <featureParams>
    <maxCatCount>0</maxCatCount>
    <featSize>1</featSize>
    <mode>BASIC</mode></featureParams>
  <stageNum>4</stageNum>
  <stages>
    <!-- stage 0 -->
    <_>
      <maxWeakCount>2</maxWeakCount>
      <stageThreshold>-2.3665466904640198e-01</stageThreshold>
      <weakClassifiers>
        <_>
          <internalNodes>
            0 -1 0 3.2659858465194702e-02</internalNodes>
          <leafValues>
            -9.6246087551116943e-01 6.6572237014770508e-01</leafValues></_>
        <_>
          <internalNodes>
            0 -1 4 9.8637044429779053e-03</internalNodes>
          <leafValues>
            -8.9532649517059326e-01 7.2580623626708984e-01</leafValues></_></weakClassifiers></_>
    <!-- stage 1 -->
    <_>
      <maxWeakCount>2</maxWeakCount>
      <stageThreshold>6.0624331235885620e-03</stageThreshold>
      <weakClassifiers>
        <_>
          <internalNodes>
            0 -1 3 7.5726628303527832e-02</internalNodes>
          <leafValues>
            -8.7392550706863403e-01 8.5660380125045776e-01</leafValues></_>
        <_>
          <internalNodes>
            0 -1 8 -1.3586411252617836e-02</internalNodes>
          <leafValues>
            8.9543741941452026e-01 -8.5054135322570801e-01</leafValues></_></weakClassifiers></_>
    <!-- stage 2 -->
    <_>
      <maxWeakCount>3</maxWeakCount>
      <stageThreshold>-9.7819280624389648e-01</stageThreshold>
      <weakClassifiers>
        <_>
          <internalNodes>
            0 -1 2 -3.7357300519943237e-02</internalNodes>
          <leafValues>
            8.1967210769653320e-01 -8.3146065473556519e-01</leafValues></_>
        <_>
          <internalNodes>
            0 -1 1 1.5789885073900223e-02</internalNodes>
          <leafValues>
            -8.9891666173934937e-01 6.1265993118286133e-01</leafValues></_>
        <_>
          <internalNodes>
            0 -1 6 1.9378237426280975e-02</internalNodes>
          <leafValues>
            -7.5939202308654785e-01 8.4848403930664063e-01</leafValues></_></weakClassifiers></_>
    <!-- stage 3 -->
    <_>
      <maxWeakCount>2</maxWeakCount>
      <stageThreshold>-1.6377319395542145e-01</stageThreshold>
      <weakClassifiers>
        <_>
          <internalNodes>
            0 -1 7 -1.4774423092603683e-02</internalNodes>
          <leafValues>
            1. -8.0505412817001343e-01</leafValues></_>
        <_>
          <internalNodes>
            0 -1 5 6.1980178579688072e-03</internalNodes>
          <leafValues>
            -8.9093387126922607e-01 6.4128094911575317e-01</leafValues></_></weakClassifiers></_></stages>
  <features>
    <_>
      <rects>
        <_>
          1 7 6 8 -1.</_>
        <_>
          3 7 2 8 3.</_></rects>
      <tilted>0</tilted></_>
    <_>
      <rects>
        <_>
          1 11 6 3 -1.</_>
        <_>
          3 11 2 3 3.</_></rects>
      <tilted>0</tilted></_>
    <_>
      <rects>
        <_>
          5 24 6 6 -1.</_>
        <_>
          5 27 6 3 2.</_></rects>
      <tilted>0</tilted></_>
    <_>
      <rects>
        <_>
          7 7 5 16 -1.</_>
        <_>
          7 15 5 8 2.</_></rects>
      <tilted>0</tilted></_>
    <_>
      <rects>
        <_>
          10 0 7 4 -1.</_>
        <_>
          10 2 7 2 2.</_></rects>
      <tilted>0</tilted></_>
    <_>
      <rects>
        <_>
          11 4 3 6 -1.</_>
        <_>
          12 4 1 6 3.</_></rects>
      <tilted>0</tilted></_>
    <_>
      <rects>
        <_>
          11 4 3 19 -1.</_>
        <_>
          12 4 1 19 3.</_></rects>
      <tilted>0</tilted></_>
    <_>
      <rects>
        <_>
          15 19 3 8 -1.</_>
        <_>
          16 19 1 8 3.</_></rects>
      <tilted>0</tilted></_>
    <_>
      <rects>
        <_>
          18 10 2 10 -1.</_>
        <_>
          19 10 1 10 2.</_></rects>
      <tilted>0</tilted></_></features></cascade>
</opencv_storage>
